digraph Tree {
node [shape=box, style="filled, rounded", color="black", fontname=helvetica] ;
edge [fontname=helvetica] ;
0 [label=<worst perimeter &le; 105.95<br/>entropy = 0.953<br/>samples = 569<br/>value = [212, 357]<br/>class = benign>, fillcolor="#399de568"] ;
1 [label=<worst concave points &le; 0.135<br/>entropy = 0.283<br/>samples = 345<br/>value = [17, 328]<br/>class = benign>, fillcolor="#399de5f2"] ;
0 -> 1 [labeldistance=2.5, labelangle=45, headlabel="True"] ;
2 [label=<area error &le; 48.975<br/>entropy = 0.097<br/>samples = 320<br/>value = [4, 316]<br/>class = benign>, fillcolor="#399de5fc"] ;
1 -> 2 ;
3 [label=<worst texture &le; 30.145<br/>entropy = 0.055<br/>samples = 316<br/>value = [2, 314]<br/>class = benign>, fillcolor="#399de5fd"] ;
2 -> 3 ;
4 [label=<entropy = 0.0<br/>samples = 274<br/>value = [0, 274]<br/>class = benign>, fillcolor="#399de5ff"] ;
3 -> 4 ;
5 [label=<texture error &le; 0.86<br/>entropy = 0.276<br/>samples = 42<br/>value = [2, 40]<br/>class = benign>, fillcolor="#399de5f2"] ;
3 -> 5 ;
6 [label=<entropy = 0.0<br/>samples = 1<br/>value = [1, 0]<br/>class = malignant>, fillcolor="#e58139ff"] ;
5 -> 6 ;
7 [label=<entropy = 0.165<br/>samples = 41<br/>value = [1, 40]<br/>class = benign>, fillcolor="#399de5f9"] ;
5 -> 7 ;
8 [label=<texture error &le; 1.938<br/>entropy = 1.0<br/>samples = 4<br/>value = [2, 2]<br/>class = malignant>, fillcolor="#e5813900"] ;
2 -> 8 ;
9 [label=<entropy = 0.0<br/>samples = 2<br/>value = [0, 2]<br/>class = benign>, fillcolor="#399de5ff"] ;
8 -> 9 ;
10 [label=<entropy = 0.0<br/>samples = 2<br/>value = [2, 0]<br/>class = malignant>, fillcolor="#e58139ff"] ;
8 -> 10 ;
11 [label=<worst texture &le; 27.575<br/>entropy = 0.999<br/>samples = 25<br/>value = [13, 12]<br/>class = malignant>, fillcolor="#e5813914"] ;
1 -> 11 ;
12 [label=<worst symmetry &le; 0.358<br/>entropy = 0.811<br/>samples = 16<br/>value = [4, 12]<br/>class = benign>, fillcolor="#399de5aa"] ;
11 -> 12 ;
13 [label=<entropy = 0.0<br/>samples = 11<br/>value = [0, 11]<br/>class = benign>, fillcolor="#399de5ff"] ;
12 -> 13 ;
14 [label=<mean radius &le; 10.225<br/>entropy = 0.722<br/>samples = 5<br/>value = [4, 1]<br/>class = malignant>, fillcolor="#e58139bf"] ;
12 -> 14 ;
15 [label=<entropy = 0.0<br/>samples = 1<br/>value = [0, 1]<br/>class = benign>, fillcolor="#399de5ff"] ;
14 -> 15 ;
16 [label=<entropy = 0.0<br/>samples = 4<br/>value = [4, 0]<br/>class = malignant>, fillcolor="#e58139ff"] ;
14 -> 16 ;
17 [label=<entropy = 0.0<br/>samples = 9<br/>value = [9, 0]<br/>class = malignant>, fillcolor="#e58139ff"] ;
11 -> 17 ;
18 [label=<worst perimeter &le; 117.45<br/>entropy = 0.556<br/>samples = 224<br/>value = [195, 29]<br/>class = malignant>, fillcolor="#e58139d9"] ;
0 -> 18 [labeldistance=2.5, labelangle=-45, headlabel="False"] ;
19 [label=<worst smoothness &le; 0.136<br/>entropy = 0.998<br/>samples = 57<br/>value = [30, 27]<br/>class = malignant>, fillcolor="#e5813919"] ;
18 -> 19 ;
20 [label=<worst texture &le; 25.67<br/>entropy = 0.787<br/>samples = 34<br/>value = [8, 26]<br/>class = benign>, fillcolor="#399de5b1"] ;
19 -> 20 ;
21 [label=<entropy = 0.0<br/>samples = 20<br/>value = [0, 20]<br/>class = benign>, fillcolor="#399de5ff"] ;
20 -> 21 ;
22 [label=<worst radius &le; 16.8<br/>entropy = 0.985<br/>samples = 14<br/>value = [8, 6]<br/>class = malignant>, fillcolor="#e5813940"] ;
20 -> 22 ;
23 [label=<entropy = 0.811<br/>samples = 8<br/>value = [2, 6]<br/>class = benign>, fillcolor="#399de5aa"] ;
22 -> 23 ;
24 [label=<entropy = 0.0<br/>samples = 6<br/>value = [6, 0]<br/>class = malignant>, fillcolor="#e58139ff"] ;
22 -> 24 ;
25 [label=<area error &le; 16.195<br/>entropy = 0.258<br/>samples = 23<br/>value = [22, 1]<br/>class = malignant>, fillcolor="#e58139f3"] ;
19 -> 25 ;
26 [label=<entropy = 0.0<br/>samples = 1<br/>value = [0, 1]<br/>class = benign>, fillcolor="#399de5ff"] ;
25 -> 26 ;
27 [label=<entropy = 0.0<br/>samples = 22<br/>value = [22, 0]<br/>class = malignant>, fillcolor="#e58139ff"] ;
25 -> 27 ;
28 [label=<worst concave points &le; 0.086<br/>entropy = 0.094<br/>samples = 167<br/>value = [165, 2]<br/>class = malignant>, fillcolor="#e58139fc"] ;
18 -> 28 ;
29 [label=<perimeter error &le; 2.87<br/>entropy = 0.918<br/>samples = 3<br/>value = [1, 2]<br/>class = benign>, fillcolor="#399de57f"] ;
28 -> 29 ;
30 [label=<entropy = 0.0<br/>samples = 1<br/>value = [1, 0]<br/>class = malignant>, fillcolor="#e58139ff"] ;
29 -> 30 ;
31 [label=<entropy = 0.0<br/>samples = 2<br/>value = [0, 2]<br/>class = benign>, fillcolor="#399de5ff"] ;
29 -> 31 ;
32 [label=<entropy = 0.0<br/>samples = 164<br/>value = [164, 0]<br/>class = malignant>, fillcolor="#e58139ff"] ;
28 -> 32 ;
}
